{
    "in_shape": [
        0,
        0,
        1
    ],
    "layers": [
        {
            "type": "conv1d",
            "activation": "",
            "shape": [],
            "weights": [
                [
                    [
                        [
                            0.2086605280637741,
                            -0.104468435049057,
                            -0.02369561977684498
                        ],
                        [
                            0.4084758460521698,
                            0.2691778540611267,
                            0.31421753764152527
                        ],
                        [
                            -0.01935112662613392,
                            0.07523840665817261,
                            -0.08302675187587738
                        ],
                        [
                            -0.26317155361175537,
                            -0.11716865003108978,
                            0.0010018605971708894
                        ],
                        [
                            -0.07125375419855118,
                            0.13015076518058777,
                            0.12109580636024475
                        ],
                        [
                            0.13091252744197845,
                            -0.013369453139603138,
                            -0.07827568799257278
                        ],
                        [
                            0.2249024361371994,
                            0.05466802418231964,
                            -0.10631409287452698
                        ],
                        [
                            -0.11692268401384354,
                            0.1063648909330368,
                            0.33063432574272156
                        ],
                        [
                            -0.2450108528137207,
                            -0.06086790934205055,
                            -0.14372871816158295
                        ],
                        [
                            -0.18108925223350525,
                            -0.2513591945171356,
                            -0.3135625720024109
                        ],
                        [
                            -0.15294526517391205,
                            0.26398709416389465,
                            0.7040508985519409
                        ],
                        [
                            -0.006190076936036348,
                            -0.4575939178466797,
                            -2.554699659347534
                        ]
                    ],
                    [
                        [
                            -0.061182957142591476,
                            -0.08186034113168716,
                            -0.180044487118721
                        ],
                        [
                            -0.034655965864658356,
                            0.29143768548965454,
                            0.102296382188797
                        ],
                        [
                            -0.16342073678970337,
                            -0.009281245991587639,
                            0.042789049446582794
                        ],
                        [
                            0.09352526068687439,
                            -0.024028562009334564,
                            0.026270098984241486
                        ],
                        [
                            -0.14523547887802124,
                            -0.05253853276371956,
                            -0.0424540713429451
                        ],
                        [
                            -0.1495978683233261,
                            -0.1232050359249115,
                            -0.166075199842453
                        ],
                        [
                            -0.001087214914150536,
                            -0.10783246159553528,
                            0.07020954042673111
                        ],
                        [
                            0.0007342087919823825,
                            0.09131436049938202,
                            -0.025881178677082062
                        ],
                        [
                            -0.16180706024169922,
                            -0.04601018503308296,
                            -0.03472737967967987
                        ],
                        [
                            -0.12264595180749893,
                            -0.11492018401622772,
                            -0.2541353106498718
                        ],
                        [
                            0.11248204112052917,
                            0.37017253041267395,
                            0.1858900636434555
                        ],
                        [
                            -0.6152164936065674,
                            -0.9521100521087646,
                            -0.7665120363235474
                        ]
                    ],
                    [
                        [
                            -0.17752698063850403,
                            -0.1638348549604416,
                            0.055083904415369034
                        ],
                        [
                            0.14361603558063507,
                            0.18657806515693665,
                            -0.0025810583028942347
                        ],
                        [
                            -0.03813151642680168,
                            0.0008693045238032937,
                            0.004906909540295601
                        ],
                        [
                            -0.024033816531300545,
                            0.07463399320840836,
                            -0.10452746599912643
                        ],
                        [
                            -0.02829187735915184,
                            -0.15823829174041748,
                            0.049238815903663635
                        ],
                        [
                            -0.12722714245319366,
                            0.03162054345011711,
                            -0.10546810179948807
                        ],
                        [
                            -0.07792072743177414,
                            -0.1482413411140442,
                            0.16977916657924652
                        ],
                        [
                            0.2294105589389801,
                            0.12182209640741348,
                            -0.16905614733695984
                        ],
                        [
                            -0.050953447818756104,
                            0.07011675834655762,
                            -0.026301244273781776
                        ],
                        [
                            -0.33867767453193665,
                            -0.38328585028648376,
                            0.1508592963218689
                        ],
                        [
                            0.30690595507621765,
                            0.5564892292022705,
                            -0.00016582733951509
                        ],
                        [
                            -1.112707257270813,
                            -2.1324594020843506,
                            0.4128992557525635
                        ]
                    ],
                    [
                        [
                            0.19389685988426208,
                            0.08468975126743317,
                            0.17960168421268463
                        ],
                        [
                            0.1076650470495224,
                            -0.14092309772968292,
                            -0.16046056151390076
                        ],
                        [
                            0.03710559755563736,
                            0.02164893038570881,
                            0.05733554810285568
                        ],
                        [
                            -0.07827628403902054,
                            0.14657297730445862,
                            0.06407099217176437
                        ],
                        [
                            -0.12478653341531754,
                            0.006153031252324581,
                            0.16106489300727844
                        ],
                        [
                            -0.12829092144966125,
                            -0.05947062373161316,
                            -0.2496478110551834
                        ],
                        [
                            0.0554400235414505,
                            0.011081620119512081,
                            0.025528209283947945
                        ],
                        [
                            -0.020842352882027626,
                            -0.03577277436852455,
                            -0.13470914959907532
                        ],
                        [
                            -0.16938826441764832,
                            -0.03727772831916809,
                            0.2570291757583618
                        ],
                        [
                            -0.11635518074035645,
                            0.4079432487487793,
                            0.30798739194869995
                        ],
                        [
                            -0.2808799743652344,
                            -0.11309356987476349,
                            -0.6164519190788269
                        ],
                        [
                            0.005546517204493284,
                            1.46732759475708,
                            3.0354578495025635
                        ]
                    ],
                    [
                        [
                            -0.018871575593948364,
                            -0.08844641596078873,
                            0.11868162453174591
                        ],
                        [
                            0.04945974424481392,
                            0.2512541711330414,
                            -0.12878116965293884
                        ],
                        [
                            0.14055940508842468,
                            0.17757493257522583,
                            -0.031708210706710815
                        ],
                        [
                            -0.06863141804933548,
                            -0.054638125002384186,
                            -0.022644029930233955
                        ],
                        [
                            -0.12254365533590317,
                            -0.045890744775533676,
                            -0.0725780725479126
                        ],
                        [
                            0.12922851741313934,
                            0.1340402215719223,
                            0.0617213249206543
                        ],
                        [
                            -0.12370337545871735,
                            -0.03298773244023323,
                            -0.07021910697221756
                        ],
                        [
                            0.11374977231025696,
                            0.1136704534292221,
                            -0.014681892469525337
                        ],
                        [
                            -0.18035706877708435,
                            -0.2190915048122406,
                            0.021676043048501015
                        ],
                        [
                            -0.21672935783863068,
                            -0.3640008866786957,
                            0.06581054627895355
                        ],
                        [
                            0.3984609842300415,
                            0.9846312403678894,
                            -0.2553243339061737
                        ],
                        [
                            -0.9051041007041931,
                            -3.0174453258514404,
                            1.6813031435012817
                        ]
                    ],
                    [
                        [
                            0.03263050690293312,
                            -0.1568862497806549,
                            0.072575144469738
                        ],
                        [
                            -0.023512709885835648,
                            0.28013232350349426,
                            -0.25030145049095154
                        ],
                        [
                            -0.08542228490114212,
                            -0.0787976086139679,
                            -0.09496600180864334
                        ],
                        [
                            -0.07874119281768799,
                            -0.16744361817836761,
                            0.13135230541229248
                        ],
                        [
                            0.1365845650434494,
                            -0.21092446148395538,
                            -0.0013103733072057366
                        ],
                        [
                            -0.14521881937980652,
                            -0.1126522570848465,
                            -0.19127148389816284
                        ],
                        [
                            0.027884354814887047,
                            -0.0006776753580197692,
                            0.02624722197651863
                        ],
                        [
                            0.21065020561218262,
                            0.06594296544790268,
                            -0.10666657984256744
                        ],
                        [
                            0.016414355486631393,
                            0.051835447549819946,
                            -0.1069815382361412
                        ],
                        [
                            -0.09686706215143204,
                            -0.16873520612716675,
                            0.11433816701173782
                        ],
                        [
                            0.15142317116260529,
                            0.10676155239343643,
                            -0.09407287836074829
                        ],
                        [
                            -0.37913697957992554,
                            -0.07950007915496826,
                            0.3935529589653015
                        ]
                    ],
                    [
                        [
                            0.05753951147198677,
                            0.008904201909899712,
                            -0.1111779436469078
                        ],
                        [
                            -0.027646677568554878,
                            -0.15511058270931244,
                            -0.017801355570554733
                        ],
                        [
                            0.04495130851864815,
                            0.12652872502803802,
                            -0.012614118866622448
                        ],
                        [
                            0.05146279186010361,
                            -0.111296147108078,
                            0.06715649366378784
                        ],
                        [
                            0.04223357513546944,
                            0.05123263597488403,
                            0.16225102543830872
                        ],
                        [
                            0.03129807114601135,
                            0.07214340567588806,
                            0.0173148512840271
                        ],
                        [
                            -0.0019099923083558679,
                            -0.028336036950349808,
                            -0.045019324868917465
                        ],
                        [
                            -0.21200524270534515,
                            0.1632898449897766,
                            -0.06766871362924576
                        ],
                        [
                            -0.018913358449935913,
                            0.05730251222848892,
                            0.1179867684841156
                        ],
                        [
                            0.2997799217700958,
                            -0.14730282127857208,
                            0.2707693874835968
                        ],
                        [
                            -0.2677771747112274,
                            -0.07956328243017197,
                            -0.24665628373622894
                        ],
                        [
                            0.18874962627887726,
                            -0.13985605537891388,
                            0.16952581703662872
                        ]
                    ],
                    [
                        [
                            0.08011937141418457,
                            0.08220110088586807,
                            0.14871768653392792
                        ],
                        [
                            -0.22894950211048126,
                            -0.26064497232437134,
                            -0.21756969392299652
                        ],
                        [
                            -0.197946697473526,
                            0.01699123904109001,
                            -0.17791199684143066
                        ],
                        [
                            -0.06918973475694656,
                            0.18487177789211273,
                            0.13272006809711456
                        ],
                        [
                            0.0006994568393565714,
                            0.13155126571655273,
                            0.13459865748882294
                        ],
                        [
                            -0.06727569550275803,
                            0.04535768926143646,
                            -0.1267082840204239
                        ],
                        [
                            0.09280439466238022,
                            0.08702930808067322,
                            0.13249561190605164
                        ],
                        [
                            -0.08961308002471924,
                            -0.2596066892147064,
                            -0.08307109028100967
                        ],
                        [
                            0.08176454156637192,
                            0.07645413279533386,
                            0.1047002449631691
                        ],
                        [
                            0.2338307946920395,
                            0.1829463690519333,
                            0.20718632638454437
                        ],
                        [
                            -0.39252278208732605,
                            -0.5163732171058655,
                            -0.1333603411912918
                        ],
                        [
                            1.4136875867843628,
                            1.788174033164978,
                            1.6319682598114014
                        ]
                    ],
                    [
                        [
                            -0.26161473989486694,
                            -0.10958142578601837,
                            0.10077054053544998
                        ],
                        [
                            -0.4467929005622864,
                            -0.2054576426744461,
                            0.12447638064622879
                        ],
                        [
                            -0.04919949546456337,
                            -0.07825783640146255,
                            -0.13414731621742249
                        ],
                        [
                            0.06449117511510849,
                            0.15465348958969116,
                            -0.0671718642115593
                        ],
                        [
                            0.23026663064956665,
                            -0.00974805187433958,
                            -0.2212105691432953
                        ],
                        [
                            -0.16829560697078705,
                            -0.04054093733429909,
                            0.04106174036860466
                        ],
                        [
                            -0.13995793461799622,
                            0.002573295496404171,
                            -0.03131217882037163
                        ],
                        [
                            0.012826139107346535,
                            -0.056181296706199646,
                            0.06627689301967621
                        ],
                        [
                            0.38343754410743713,
                            -0.05409273877739906,
                            0.011729640886187553
                        ],
                        [
                            0.24717123806476593,
                            -0.047607727348804474,
                            -0.19091477990150452
                        ],
                        [
                            -0.2716365158557892,
                            -0.19595715403556824,
                            0.12134065479040146
                        ],
                        [
                            1.653303623199463,
                            0.6990792751312256,
                            -1.2963037490844727
                        ]
                    ],
                    [
                        [
                            0.1782371997833252,
                            -0.005507654044777155,
                            -0.15035220980644226
                        ],
                        [
                            -0.12173724174499512,
                            0.14842486381530762,
                            0.05946427956223488
                        ],
                        [
                            -0.07837128639221191,
                            0.015347522683441639,
                            -0.2120210975408554
                        ],
                        [
                            -0.009905780665576458,
                            -0.08508364111185074,
                            0.2048644721508026
                        ],
                        [
                            0.03944186121225357,
                            0.0009476509876549244,
                            -0.015788577497005463
                        ],
                        [
                            0.006959327030926943,
                            -0.0077520920895040035,
                            -0.17254295945167542
                        ],
                        [
                            -0.05710255354642868,
                            -0.026738403365015984,
                            0.0991501584649086
                        ],
                        [
                            -0.06292679905891418,
                            -0.0942612737417221,
                            -0.04401003196835518
                        ],
                        [
                            -0.158685564994812,
                            -0.04452158138155937,
                            -0.09761655330657959
                        ],
                        [
                            0.15576238930225372,
                            -0.051389675587415695,
                            -0.07690189778804779
                        ],
                        [
                            -0.09570819139480591,
                            -0.010267553851008415,
                            0.17064130306243896
                        ],
                        [
                            0.6757918000221252,
                            0.13807247579097748,
                            -0.12291091680526733
                        ]
                    ],
                    [
                        [
                            0.11942658573389053,
                            0.031572967767715454,
                            0.03687421604990959
                        ],
                        [
                            0.3762006163597107,
                            0.0779879242181778,
                            0.013300681486725807
                        ],
                        [
                            0.13388437032699585,
                            -0.025382595136761665,
                            0.08845926821231842
                        ],
                        [
                            -0.030777454376220703,
                            0.10152685642242432,
                            0.13728851079940796
                        ],
                        [
                            -0.24476806819438934,
                            0.15642911195755005,
                            0.041277479380369186
                        ],
                        [
                            0.2818097472190857,
                            0.02648000232875347,
                            0.12789005041122437
                        ],
                        [
                            0.16318418085575104,
                            0.0072553022764623165,
                            -0.11066834628582001
                        ],
                        [
                            -0.18836192786693573,
                            0.058906521648168564,
                            0.0513138584792614
                        ],
                        [
                            -0.3365843594074249,
                            -0.1739036738872528,
                            0.16270111501216888
                        ],
                        [
                            -0.18005098402500153,
                            -0.06728427857160568,
                            0.12419423460960388
                        ],
                        [
                            -0.186502143740654,
                            0.048660047352313995,
                            -0.3010672330856323
                        ],
                        [
                            -0.12807494401931763,
                            -0.0961679220199585,
                            0.6831865906715393
                        ]
                    ],
                    [
                        [
                            0.1034126877784729,
                            0.04392743483185768,
                            0.04373984783887863
                        ],
                        [
                            0.061656881123781204,
                            -0.06404459476470947,
                            -0.4063502848148346
                        ],
                        [
                            0.17291362583637238,
                            -0.13966912031173706,
                            0.07967206835746765
                        ],
                        [
                            0.07046166062355042,
                            -0.07543233782052994,
                            0.15674751996994019
                        ],
                        [
                            0.05997738242149353,
                            0.08634576201438904,
                            -0.05031760036945343
                        ],
                        [
                            0.20282834768295288,
                            0.06678227335214615,
                            -0.16759368777275085
                        ],
                        [
                            0.13353659212589264,
                            0.08097226917743683,
                            0.10429161787033081
                        ],
                        [
                            -0.13262158632278442,
                            -0.03179356828331947,
                            -0.36172837018966675
                        ],
                        [
                            -0.14981186389923096,
                            0.11001275479793549,
                            0.27021124958992004
                        ],
                        [
                            -0.07012410461902618,
                            -0.18140465021133423,
                            0.42596808075904846
                        ],
                        [
                            -0.064463309943676,
                            0.3283967971801758,
                            -0.5948899984359741
                        ],
                        [
                            -0.24612396955490112,
                            -0.1394217163324356,
                            2.9919614791870117
                        ]
                    ],
                    [
                        [
                            -1.0057138204574585,
                            -0.45344433188438416,
                            -0.3394169509410858
                        ],
                        [
                            -0.9696038365364075,
                            -0.7438302040100098,
                            -0.58807772397995
                        ],
                        [
                            -1.281656265258789,
                            -0.5244287848472595,
                            -0.5645260810852051
                        ],
                        [
                            1.0522128343582153,
                            0.5159844160079956,
                            0.5901567339897156
                        ],
                        [
                            1.07920241355896,
                            0.4551604688167572,
                            0.46114400029182434
                        ],
                        [
                            -1.239705204963684,
                            -0.709741473197937,
                            -0.6873888969421387
                        ],
                        [
                            -1.3056508302688599,
                            -0.4944192171096802,
                            -0.37647679448127747
                        ],
                        [
                            0.9346184134483337,
                            0.44032222032546997,
                            -0.047598496079444885
                        ],
                        [
                            1.1901798248291016,
                            0.61810302734375,
                            0.592418372631073
                        ],
                        [
                            -0.25466880202293396,
                            -0.3672010898590088,
                            -0.11022046953439713
                        ],
                        [
                            0.7157824635505676,
                            0.27654966711997986,
                            0.254791796207428
                        ],
                        [
                            -0.047854043543338776,
                            0.2084769457578659,
                            0.35127460956573486
                        ]
                    ],
                    [
                        [
                            -0.19179104268550873,
                            -0.4419747591018677,
                            -0.6194437742233276
                        ],
                        [
                            -0.7383894324302673,
                            -0.5948131084442139,
                            -0.30459925532341003
                        ],
                        [
                            -0.5947368144989014,
                            -0.6120096445083618,
                            -0.5066093802452087
                        ],
                        [
                            0.4612421989440918,
                            0.5018710494041443,
                            0.534010112285614
                        ],
                        [
                            0.5787816047668457,
                            0.5041691660881042,
                            0.6164504885673523
                        ],
                        [
                            -0.3870322108268738,
                            -0.4426790177822113,
                            -0.48345813155174255
                        ],
                        [
                            -0.5236988663673401,
                            -0.38876965641975403,
                            -0.397475004196167
                        ],
                        [
                            0.29321208596229553,
                            0.4357847571372986,
                            0.39946168661117554
                        ],
                        [
                            0.47878625988960266,
                            0.5460982322692871,
                            0.5222487449645996
                        ],
                        [
                            0.04962136596441269,
                            -0.3398256301879883,
                            -0.5141881108283997
                        ],
                        [
                            -0.2986929714679718,
                            0.2350497543811798,
                            0.3834587633609772
                        ],
                        [
                            1.3594629764556885,
                            0.27724945545196533,
                            -0.47161272168159485
                        ]
                    ],
                    [
                        [
                            -0.11615482717752457,
                            -0.333305299282074,
                            -0.4038260579109192
                        ],
                        [
                            -0.4150518476963043,
                            -0.44047027826309204,
                            -0.5313493013381958
                        ],
                        [
                            -0.27547383308410645,
                            -0.29091763496398926,
                            -0.47462210059165955
                        ],
                        [
                            0.17727704346179962,
                            0.12855198979377747,
                            0.3303944766521454
                        ],
                        [
                            0.10854469984769821,
                            0.16227436065673828,
                            0.4730433225631714
                        ],
                        [
                            -0.23894347250461578,
                            -0.23916713893413544,
                            -0.42738470435142517
                        ],
                        [
                            -0.21443185210227966,
                            -0.08948282897472382,
                            -0.5384098291397095
                        ],
                        [
                            -0.13932158052921295,
                            -0.061927132308483124,
                            0.17317116260528564
                        ],
                        [
                            0.12512344121932983,
                            0.3192090392112732,
                            0.5392603278160095
                        ],
                        [
                            0.05812668800354004,
                            0.06430505216121674,
                            -0.3765352964401245
                        ],
                        [
                            0.0038743168115615845,
                            0.037185657769441605,
                            0.523841142654419
                        ],
                        [
                            0.4391031861305237,
                            0.4058779180049896,
                            0.05651475861668587
                        ]
                    ],
                    [
                        [
                            -1.0705468654632568,
                            -0.4943961501121521,
                            -0.4642763137817383
                        ],
                        [
                            -1.3063925504684448,
                            -0.4076547920703888,
                            -0.1604093462228775
                        ],
                        [
                            -1.8282262086868286,
                            -0.30091944336891174,
                            -0.4956466257572174
                        ],
                        [
                            1.4950828552246094,
                            0.3497508466243744,
                            0.33849820494651794
                        ],
                        [
                            1.682260274887085,
                            0.2690826952457428,
                            0.5614359974861145
                        ],
                        [
                            -1.2458492517471313,
                            -0.23630712926387787,
                            -0.349543958902359
                        ],
                        [
                            -1.6325829029083252,
                            -0.7074605226516724,
                            -0.47459256649017334
                        ],
                        [
                            0.2806864082813263,
                            0.5871307253837585,
                            0.37674468755722046
                        ],
                        [
                            1.4513614177703857,
                            0.29259806871414185,
                            0.4970689117908478
                        ],
                        [
                            0.02363709732890129,
                            -0.5038787722587585,
                            -0.5661848187446594
                        ],
                        [
                            0.016386495903134346,
                            0.6422010660171509,
                            0.7491392493247986
                        ],
                        [
                            1.0638718605041504,
                            -0.013997328467667103,
                            -0.6334867477416992
                        ]
                    ],
                    [
                        [
                            0.0949251651763916,
                            0.005760079715400934,
                            -0.45092833042144775
                        ],
                        [
                            -0.10752427577972412,
                            -0.041384026408195496,
                            -0.5649246573448181
                        ],
                        [
                            -0.06913438439369202,
                            -0.18296360969543457,
                            -0.4015430212020874
                        ],
                        [
                            -0.015992501750588417,
                            0.0018372192280367017,
                            0.3035261332988739
                        ],
                        [
                            0.062810517847538,
                            -0.006589967757463455,
                            0.44855546951293945
                        ],
                        [
                            -0.16475030779838562,
                            -0.10247202962636948,
                            -0.6430895924568176
                        ],
                        [
                            0.1614176630973816,
                            -0.17492124438285828,
                            -0.3170751631259918
                        ],
                        [
                            -0.1326480209827423,
                            -0.07698743790388107,
                            0.3714427053928375
                        ],
                        [
                            0.06502823531627655,
                            0.21658296883106232,
                            0.31659385561943054
                        ],
                        [
                            -0.10802536457777023,
                            -0.1874404102563858,
                            -0.3367001712322235
                        ],
                        [
                            -0.19695627689361572,
                            -0.11724402010440826,
                            0.23766332864761353
                        ],
                        [
                            -0.1518927365541458,
                            0.351122111082077,
                            0.10969007015228271
                        ]
                    ],
                    [
                        [
                            -0.5747128129005432,
                            -0.6913737058639526,
                            -1.018605351448059
                        ],
                        [
                            -0.7677562236785889,
                            -0.9380579590797424,
                            -0.4077267050743103
                        ],
                        [
                            -0.8066884875297546,
                            -0.7112141251564026,
                            -0.7743949890136719
                        ],
                        [
                            0.7363232374191284,
                            0.7079118490219116,
                            0.863123893737793
                        ],
                        [
                            0.5945429801940918,
                            0.7339149713516235,
                            0.8824490308761597
                        ],
                        [
                            -0.587920606136322,
                            -0.707094669342041,
                            -0.7229621410369873
                        ],
                        [
                            -0.6745753288269043,
                            -0.8163135051727295,
                            -1.0998369455337524
                        ],
                        [
                            0.4948018491268158,
                            0.6467313170433044,
                            1.049657940864563
                        ],
                        [
                            0.7508094906806946,
                            0.8288962841033936,
                            0.7609692215919495
                        ],
                        [
                            -0.5770593285560608,
                            -0.5384638905525208,
                            -0.985630452632904
                        ],
                        [
                            0.699513852596283,
                            0.42618611454963684,
                            1.5676881074905396
                        ],
                        [
                            0.31201890110969543,
                            0.3173772394657135,
                            -1.0434073209762573
                        ]
                    ],
                    [
                        [
                            -0.7670536637306213,
                            -0.48128989338874817,
                            -0.6060488820075989
                        ],
                        [
                            -0.5428240299224854,
                            -0.44475528597831726,
                            -0.4977274537086487
                        ],
                        [
                            -0.6952129602432251,
                            -0.6679095029830933,
                            -0.8167580366134644
                        ],
                        [
                            0.3060510456562042,
                            0.6136728525161743,
                            0.48311102390289307
                        ],
                        [
                            0.6043903827667236,
                            0.5189784169197083,
                            0.6029751300811768
                        ],
                        [
                            -0.41806870698928833,
                            -0.5801978707313538,
                            -0.5875688791275024
                        ],
                        [
                            -0.6952852010726929,
                            -0.5866571068763733,
                            -0.8862300515174866
                        ],
                        [
                            0.5601029396057129,
                            0.5305049419403076,
                            0.7458633780479431
                        ],
                        [
                            0.6482120752334595,
                            0.4573203921318054,
                            0.5988578796386719
                        ],
                        [
                            -0.2855099141597748,
                            -0.2915842533111572,
                            -0.4760364294052124
                        ],
                        [
                            0.5157368779182434,
                            0.5777410268783569,
                            0.7499829530715942
                        ],
                        [
                            -0.13247086107730865,
                            -0.041598208248615265,
                            -0.11512581259012222
                        ]
                    ],
                    [
                        [
                            -0.45849931240081787,
                            -0.29439952969551086,
                            -0.2776499092578888
                        ],
                        [
                            0.05960240587592125,
                            -0.08849675208330154,
                            -0.10018589347600937
                        ],
                        [
                            -0.2543852925300598,
                            -0.42238008975982666,
                            -0.19587308168411255
                        ],
                        [
                            0.23479647934436798,
                            0.2871588170528412,
                            0.06523600965738297
                        ],
                        [
                            0.3881894052028656,
                            0.3983970880508423,
                            0.15855595469474792
                        ],
                        [
                            -0.22972428798675537,
                            -0.39122697710990906,
                            -0.10651679337024689
                        ],
                        [
                            -0.6757307052612305,
                            -0.33954399824142456,
                            -0.08592826128005981
                        ],
                        [
                            0.8038908243179321,
                            0.4993055760860443,
                            0.37045353651046753
                        ],
                        [
                            0.3850119113922119,
                            0.30083751678466797,
                            0.3073843717575073
                        ],
                        [
                            -0.6904662251472473,
                            -0.5270457863807678,
                            -0.23194243013858795
                        ],
                        [
                            1.2880889177322388,
                            1.1727075576782227,
                            0.3775719404220581
                        ],
                        [
                            -1.912101149559021,
                            -1.2488564252853394,
                            -0.21592561900615692
                        ]
                    ],
                    [
                        [
                            -0.4583264887332916,
                            -0.8630161285400391,
                            -0.8552472591400146
                        ],
                        [
                            -0.6889346837997437,
                            -0.5133444666862488,
                            -0.619551956653595
                        ],
                        [
                            -0.7460944056510925,
                            -0.6410453915596008,
                            -0.7699185609817505
                        ],
                        [
                            0.8029007911682129,
                            0.5019382834434509,
                            0.8034791350364685
                        ],
                        [
                            0.8354847431182861,
                            0.5556523203849792,
                            0.9121332764625549
                        ],
                        [
                            -0.8933071494102478,
                            -0.7225653529167175,
                            -0.8758508563041687
                        ],
                        [
                            -0.6730296015739441,
                            -0.8713246583938599,
                            -0.8425854444503784
                        ],
                        [
                            0.4113081097602844,
                            0.8206100463867188,
                            0.46142640709877014
                        ],
                        [
                            0.8806073665618896,
                            0.6631144285202026,
                            0.7395138740539551
                        ],
                        [
                            -0.3209875226020813,
                            -0.5748676657676697,
                            -0.2733425498008728
                        ],
                        [
                            0.5260390043258667,
                            0.5671445727348328,
                            0.21884311735630035
                        ],
                        [
                            -0.17674864828586578,
                            -0.32178980112075806,
                            -0.004679870326071978
                        ]
                    ],
                    [
                        [
                            -0.434042751789093,
                            -0.40935012698173523,
                            -0.8226073384284973
                        ],
                        [
                            -0.10207763314247131,
                            -0.0717865526676178,
                            -0.4959316849708557
                        ],
                        [
                            -0.5318690538406372,
                            -0.36452800035476685,
                            -0.7648939490318298
                        ],
                        [
                            0.32435643672943115,
                            0.25391432642936707,
                            0.6632605791091919
                        ],
                        [
                            0.40211454033851624,
                            0.272241473197937,
                            0.713228702545166
                        ],
                        [
                            -0.34150898456573486,
                            -0.3741559088230133,
                            -0.3749889135360718
                        ],
                        [
                            -0.5655018091201782,
                            -0.5642884373664856,
                            -0.8449519276618958
                        ],
                        [
                            0.5936970710754395,
                            0.5161491632461548,
                            0.8769400119781494
                        ],
                        [
                            0.36662545800209045,
                            0.18878211081027985,
                            0.47572365403175354
                        ],
                        [
                            -0.517174243927002,
                            -0.5739140510559082,
                            -0.6429092288017273
                        ],
                        [
                            0.8960737586021423,
                            1.023322582244873,
                            0.8855907917022705
                        ],
                        [
                            -0.8679086565971375,
                            -0.6821438670158386,
                            -0.27047035098075867
                        ]
                    ],
                    [
                        [
                            -0.5779978036880493,
                            -0.628262460231781,
                            -0.5461868047714233
                        ],
                        [
                            -0.7108117938041687,
                            -0.6193212270736694,
                            -1.0088282823562622
                        ],
                        [
                            -0.6873648166656494,
                            -0.6943671703338623,
                            -0.6239635348320007
                        ],
                        [
                            0.6318463087081909,
                            0.4687950015068054,
                            0.7061412334442139
                        ],
                        [
                            0.7128180265426636,
                            0.7176555395126343,
                            0.7112884521484375
                        ],
                        [
                            -0.4609985649585724,
                            -0.5449787378311157,
                            -0.4839487075805664
                        ],
                        [
                            -0.7864015698432922,
                            -0.6955299377441406,
                            -0.6890904903411865
                        ],
                        [
                            0.41619807481765747,
                            0.6272899508476257,
                            0.3607519865036011
                        ],
                        [
                            0.59193354845047,
                            0.7358931303024292,
                            0.7043799757957458
                        ],
                        [
                            -0.3503459692001343,
                            -0.3984273374080658,
                            0.0645405724644661
                        ],
                        [
                            0.456768661737442,
                            0.4275417625904083,
                            0.3061777353286743
                        ],
                        [
                            0.25946930050849915,
                            -0.00024624125217087567,
                            0.3607867956161499
                        ]
                    ],
                    [
                        [
                            -0.6758873462677002,
                            -0.6275801658630371,
                            -0.451979398727417
                        ],
                        [
                            -1.101163387298584,
                            -1.3253567218780518,
                            -0.31993749737739563
                        ],
                        [
                            -1.0447498559951782,
                            -0.9846158027648926,
                            -0.5479804873466492
                        ],
                        [
                            0.8828421831130981,
                            0.7934115529060364,
                            0.3625045418739319
                        ],
                        [
                            1.1299958229064941,
                            1.09224534034729,
                            0.43865591287612915
                        ],
                        [
                            -0.6711281538009644,
                            -0.6272660493850708,
                            -0.44634291529655457
                        ],
                        [
                            -0.8934025764465332,
                            -0.7563789486885071,
                            -0.6666863560676575
                        ],
                        [
                            0.5395826697349548,
                            0.4632532596588135,
                            0.4633941054344177
                        ],
                        [
                            0.9953105449676514,
                            0.9788798093795776,
                            0.2708112895488739
                        ],
                        [
                            -0.3700781762599945,
                            -0.23417483270168304,
                            -0.4283091127872467
                        ],
                        [
                            0.5670047998428345,
                            0.32022419571876526,
                            0.4058089852333069
                        ],
                        [
                            0.6144020557403564,
                            1.0908068418502808,
                            0.04141079634428024
                        ]
                    ]
                ],
                [
                    0.004789204802364111,
                    -0.033372633159160614,
                    0.028392603620886803,
                    0.05585462599992752,
                    -0.09409985691308975,
                    -0.011133577674627304,
                    0.1282476931810379,
                    0.038443002849817276,
                    0.10191303491592407,
                    -0.006358772981911898,
                    -0.09320764988660812,
                    -0.06355555355548859,
                    -0.5277920961380005,
                    -0.6370946764945984,
                    -0.32944256067276,
                    -0.6019948124885559,
                    -0.35489872097969055,
                    -1.0199172496795654,
                    -0.606971800327301,
                    -0.16630516946315765,
                    -1.1207269430160522,
                    -0.6435369253158569,
                    -0.5491141676902771,
                    -0.6628144383430481
                ]
            ],
            "kernel_size": [
                3
            ],
            "dilation": [
                1
            ]
        },
        {
            "type": "conv1d",
            "activation": "",
            "shape": [],
            "weights": [
                [
                    [
                        [
                            -0.1100768968462944,
                            -0.06926093995571136,
                            -0.1205204427242279
                        ],
                        [
                            -0.15172789990901947,
                            0.10624756664037704,
                            0.00518525717779994
                        ],
                        [
                            0.10449473559856415,
                            -0.43156713247299194,
                            -0.37021127343177795
                        ],
                        [
                            0.15699021518230438,
                            -0.0417378693819046,
                            -0.19762733578681946
                        ],
                        [
                            0.01765415444970131,
                            -0.03858138993382454,
                            -0.21542124450206757
                        ],
                        [
                            0.057093627750873566,
                            0.1402004212141037,
                            0.283048152923584
                        ],
                        [
                            -0.009883442893624306,
                            0.01714271493256092,
                            -0.10367371886968613
                        ],
                        [
                            -0.011273232288658619,
                            0.3806677758693695,
                            0.6322489976882935
                        ],
                        [
                            -0.021136196330189705,
                            -0.26308390498161316,
                            -0.13343483209609985
                        ],
                        [
                            0.06503310799598694,
                            -0.02704554982483387,
                            -0.04280546307563782
                        ],
                        [
                            -0.6409499645233154,
                            0.7673226594924927,
                            0.6441172957420349
                        ],
                        [
                            0.16206271946430206,
                            -0.0020668497309088707,
                            -0.41983261704444885
                        ]
                    ],
                    [
                        [
                            0.1721687614917755,
                            0.04279837757349014,
                            0.013997714035212994
                        ],
                        [
                            0.00021512189414352179,
                            0.03166365996003151,
                            0.6118426322937012
                        ],
                        [
                            0.11251825094223022,
                            -0.1634024977684021,
                            -0.5394484996795654
                        ],
                        [
                            -0.24162010848522186,
                            -0.24158447980880737,
                            0.20420320332050323
                        ],
                        [
                            -0.16275130212306976,
                            0.07101315259933472,
                            -0.016573188826441765
                        ],
                        [
                            0.05795779451727867,
                            0.06820731610059738,
                            -0.3440563678741455
                        ],
                        [
                            0.0455503985285759,
                            -0.12884464859962463,
                            -0.10015715658664703
                        ],
                        [
                            -0.06519552320241928,
                            0.2308255434036255,
                            0.12735974788665771
                        ],
                        [
                            -0.017013635486364365,
                            -0.07976984232664108,
                            0.11168867349624634
                        ],
                        [
                            0.1803443282842636,
                            -0.012477736920118332,
                            0.007109488360583782
                        ],
                        [
                            -0.13219162821769714,
                            0.48480767011642456,
                            0.49688541889190674
                        ],
                        [
                            -0.0766737312078476,
                            -0.05359899252653122,
                            0.03526543080806732
                        ]
                    ],
                    [
                        [
                            -0.011071411892771721,
                            -0.2568258047103882,
                            0.10398422926664352
                        ],
                        [
                            -0.03754943236708641,
                            -0.08799058198928833,
                            -0.03876985237002373
                        ],
                        [
                            0.323584645986557,
                            -0.5151398181915283,
                            -0.009796279482543468
                        ],
                        [
                            0.15213951468467712,
                            0.0461493544280529,
                            0.05603012815117836
                        ],
                        [
                            0.04524419084191322,
                            0.2760004699230194,
                            0.1720026731491089
                        ],
                        [
                            -0.035740483552217484,
                            -0.052128639072179794,
                            -0.14103220403194427
                        ],
                        [
                            -0.0632367804646492,
                            -0.016461610794067383,
                            0.03914855048060417
                        ],
                        [
                            0.14551013708114624,
                            0.3730996251106262,
                            -0.40786874294281006
                        ],
                        [
                            -0.18954318761825562,
                            -0.21462935209274292,
                            0.10837099701166153
                        ],
                        [
                            0.1698850393295288,
                            0.09614232182502747,
                            0.013771609403192997
                        ],
                        [
                            0.23306860029697418,
                            0.5069621205329895,
                            -0.6540801525115967
                        ],
                        [
                            0.02098756842315197,
                            -0.042805060744285583,
                            0.05625426024198532
                        ]
                    ],
                    [
                        [
                            -0.1881786733865738,
                            0.018037520349025726,
                            -0.10375379025936127
                        ],
                        [
                            -0.03704937919974327,
                            -0.08474286645650864,
                            -0.1571435183286667
                        ],
                        [
                            -0.04650565981864929,
                            -0.36069971323013306,
                            0.1642509549856186
                        ],
                        [
                            0.16773566603660583,
                            -0.0015635156305506825,
                            -0.07919447124004364
                        ],
                        [
                            0.13227535784244537,
                            -0.015147065743803978,
                            -0.068183533847332
                        ],
                        [
                            0.09550289809703827,
                            0.05568889155983925,
                            0.2937830090522766
                        ],
                        [
                            0.09403721988201141,
                            -0.01912420056760311,
                            0.2445460855960846
                        ],
                        [
                            0.081979900598526,
                            0.023540962487459183,
                            -0.3635374903678894
                        ],
                        [
                            -0.05196896940469742,
                            0.03774841129779816,
                            0.18738669157028198
                        ],
                        [
                            0.1171429455280304,
                            0.02372041344642639,
                            -0.054533567279577255
                        ],
                        [
                            0.1431599110364914,
                            0.13976901769638062,
                            -0.43656840920448303
                        ],
                        [
                            0.0689205527305603,
                            0.09436384588479996,
                            0.0677439346909523
                        ]
                    ],
                    [
                        [
                            -0.03530677407979965,
                            0.0007938824128359556,
                            -0.025946088135242462
                        ],
                        [
                            0.11704511195421219,
                            -0.1926642805337906,
                            0.5183212757110596
                        ],
                        [
                            -0.03208646923303604,
                            0.7236552238464355,
                            -0.29031652212142944
                        ],
                        [
                            0.01913698948919773,
                            -0.1861030012369156,
                            -0.2010054588317871
                        ],
                        [
                            -0.12098119407892227,
                            0.055776212364435196,
                            0.008986999280750751
                        ],
                        [
                            -0.025854041799902916,
                            -0.08459409326314926,
                            0.030665552243590355
                        ],
                        [
                            -0.060801438987255096,
                            0.13465309143066406,
                            0.023693939670920372
                        ],
                        [
                            0.22338084876537323,
                            -0.6610691547393799,
                            0.6171849966049194
                        ],
                        [
                            -0.1494559347629547,
                            0.24078212678432465,
                            -0.3106774687767029
                        ],
                        [
                            0.049566879868507385,
                            -0.12779821455478668,
                            0.0004320239822845906
                        ],
                        [
                            0.07241174578666687,
                            -0.873833417892456,
                            0.6625046730041504
                        ],
                        [
                            -0.035818036645650864,
                            0.15003246068954468,
                            -0.1778251826763153
                        ]
                    ],
                    [
                        [
                            -0.022951355203986168,
                            -0.2105603814125061,
                            -0.11520174145698547
                        ],
                        [
                            -0.045517150312662125,
                            -0.23172463476657867,
                            -0.18132100999355316
                        ],
                        [
                            0.06388076394796371,
                            -0.5517860651016235,
                            0.38957470655441284
                        ],
                        [
                            0.031092651188373566,
                            -0.11369778215885162,
                            0.034645795822143555
                        ],
                        [
                            -0.03840477392077446,
                            -0.02138092741370201,
                            -0.11492621153593063
                        ],
                        [
                            -0.28000330924987793,
                            -0.21961963176727295,
                            -0.055576711893081665
                        ],
                        [
                            0.04633600264787674,
                            -0.20531879365444183,
                            0.011923903599381447
                        ],
                        [
                            -0.19782434403896332,
                            0.15313193202018738,
                            -0.17624424397945404
                        ],
                        [
                            -0.07550983875989914,
                            0.017600733786821365,
                            0.07288184016942978
                        ],
                        [
                            0.06167943403124809,
                            -0.10818935185670853,
                            0.20069146156311035
                        ],
                        [
                            0.004977959208190441,
                            0.6688517928123474,
                            -0.25354552268981934
                        ],
                        [
                            0.006179641932249069,
                            0.010654174722731113,
                            0.04535209387540817
                        ]
                    ],
                    [
                        [
                            0.017752856016159058,
                            -0.09349115192890167,
                            0.008191712200641632
                        ],
                        [
                            0.10850006341934204,
                            0.165177121758461,
                            -0.33401039242744446
                        ],
                        [
                            -0.2258487492799759,
                            -0.2868708372116089,
                            0.21127119660377502
                        ],
                        [
                            -0.09355676919221878,
                            -0.08302085101604462,
                            0.20835036039352417
                        ],
                        [
                            -0.08353760093450546,
                            -0.04190533980727196,
                            -0.06714213639497757
                        ],
                        [
                            0.09205367416143417,
                            0.037467051297426224,
                            -0.14018110930919647
                        ],
                        [
                            -0.0829666331410408,
                            -0.14593471586704254,
                            0.07803113013505936
                        ],
                        [
                            1.065953254699707,
                            0.3783682584762573,
                            -1.1510332822799683
                        ],
                        [
                            -0.22225122153759003,
                            -0.08513133972883224,
                            0.19637416303157806
                        ],
                        [
                            -0.1998649686574936,
                            0.025931209325790405,
                            0.3065539598464966
                        ],
                        [
                            0.5407953858375549,
                            0.33157217502593994,
                            -1.3658849000930786
                        ],
                        [
                            -0.12839947640895844,
                            -0.19045335054397583,
                            0.06744886189699173
                        ]
                    ],
                    [
                        [
                            -0.13071590662002563,
                            0.014580439776182175,
                            -0.04690136760473251
                        ],
                        [
                            -0.1191077008843422,
                            0.05141764506697655,
                            -0.02856355719268322
                        ],
                        [
                            0.0013870662078261375,
                            -0.04698474705219269,
                            0.08966953307390213
                        ],
                        [
                            -0.05017386004328728,
                            0.1378079354763031,
                            -0.1734384000301361
                        ],
                        [
                            0.0005133646773174405,
                            0.07886996865272522,
                            -0.0038892258889973164
                        ],
                        [
                            0.15555213391780853,
                            0.0013712343061342835,
                            -0.009941968135535717
                        ],
                        [
                            0.043259333819150925,
                            0.1392335742712021,
                            0.06315721571445465
                        ],
                        [
                            -0.13630297780036926,
                            -0.20669002830982208,
                            0.4179629981517792
                        ],
                        [
                            0.11742058396339417,
                            -0.008432564325630665,
                            -0.05511366203427315
                        ],
                        [
                            0.009405466727912426,
                            -0.024079643189907074,
                            -0.14813454449176788
                        ],
                        [
                            -0.2632044553756714,
                            -0.12563283741474152,
                            0.2802322506904602
                        ],
                        [
                            -0.021974600851535797,
                            0.03501361235976219,
                            0.15810787677764893
                        ]
                    ],
                    [
                        [
                            -0.04621750861406326,
                            -0.17391756176948547,
                            -0.17007531225681305
                        ],
                        [
                            0.08534226566553116,
                            0.19262579083442688,
                            -0.05514846369624138
                        ],
                        [
                            0.0365275964140892,
                            0.051322661340236664,
                            0.12318041175603867
                        ],
                        [
                            -0.023614000529050827,
                            0.0739779844880104,
                            0.13776423037052155
                        ],
                        [
                            0.16220833361148834,
                            0.15569376945495605,
                            0.11932323127985
                        ],
                        [
                            0.1732841581106186,
                            0.024239521473646164,
                            0.1660194993019104
                        ],
                        [
                            -0.052216917276382446,
                            0.21479471027851105,
                            -0.10901837795972824
                        ],
                        [
                            -0.24360615015029907,
                            -0.13238726556301117,
                            0.2948450446128845
                        ],
                        [
                            -0.09516128152608871,
                            0.16427573561668396,
                            -0.11242213100194931
                        ],
                        [
                            0.1277715563774109,
                            0.2135295867919922,
                            0.10975512862205505
                        ],
                        [
                            -0.055748846381902695,
                            0.11720075458288193,
                            0.18383371829986572
                        ],
                        [
                            -0.22504568099975586,
                            0.07522306591272354,
                            -0.1949145346879959
                        ]
                    ],
                    [
                        [
                            -0.0004224750737193972,
                            -0.12878629565238953,
                            -0.06917502731084824
                        ],
                        [
                            -0.13582244515419006,
                            -0.009972292929887772,
                            -0.12136789411306381
                        ],
                        [
                            0.07991182059049606,
                            0.016284016892313957,
                            0.04487688094377518
                        ],
                        [
                            0.12871402502059937,
                            -0.043517135083675385,
                            -0.06988626718521118
                        ],
                        [
                            -0.003427848219871521,
                            0.16143719851970673,
                            0.08290986716747284
                        ],
                        [
                            0.20692449808120728,
                            -0.01882936991751194,
                            -0.1184832900762558
                        ],
                        [
                            0.14010211825370789,
                            0.24712711572647095,
                            0.10454538464546204
                        ],
                        [
                            -0.0682201087474823,
                            0.11994192749261856,
                            0.039428260177373886
                        ],
                        [
                            0.10230894386768341,
                            0.09810288995504379,
                            0.1528637409210205
                        ],
                        [
                            0.09713076055049896,
                            0.0049688746221363544,
                            0.27940186858177185
                        ],
                        [
                            -0.1525270938873291,
                            0.07498666644096375,
                            0.021267160773277283
                        ],
                        [
                            0.021857932209968567,
                            -0.01845121569931507,
                            -0.014337423257529736
                        ]
                    ],
                    [
                        [
                            -0.0966513529419899,
                            0.061762504279613495,
                            0.11576975882053375
                        ],
                        [
                            0.3322981595993042,
                            -0.4005149006843567,
                            -0.2537117600440979
                        ],
                        [
                            -0.28031930327415466,
                            0.3795795440673828,
                            0.1068025603890419
                        ],
                        [
                            -0.06861887872219086,
                            0.12446699291467667,
                            0.17798905074596405
                        ],
                        [
                            -0.0010739908320829272,
                            0.1449919193983078,
                            0.11263628304004669
                        ],
                        [
                            0.17026354372501373,
                            -0.07539741694927216,
                            0.1938413381576538
                        ],
                        [
                            0.13177162408828735,
                            0.010681657120585442,
                            -0.01860571838915348
                        ],
                        [
                            -0.05221458896994591,
                            -0.34920841455459595,
                            -0.5471178889274597
                        ],
                        [
                            0.018252147361636162,
                            0.0822596326470375,
                            -0.0725732073187828
                        ],
                        [
                            0.161383256316185,
                            -0.08135155588388443,
                            0.18618948757648468
                        ],
                        [
                            0.507334291934967,
                            -0.5575954914093018,
                            -0.6411224007606506
                        ],
                        [
                            -0.04701528325676918,
                            -0.06305134296417236,
                            0.28287220001220703
                        ]
                    ],
                    [
                        [
                            0.038826264441013336,
                            -0.02471187524497509,
                            -0.053942471742630005
                        ],
                        [
                            -0.14480753242969513,
                            -0.07779228687286377,
                            0.0032300015445798635
                        ],
                        [
                            -0.06019078195095062,
                            0.3955657482147217,
                            -0.0340324342250824
                        ],
                        [
                            -0.13976867496967316,
                            0.08649525046348572,
                            0.008160721510648727
                        ],
                        [
                            0.10716389864683151,
                            0.11513053625822067,
                            -0.025311388075351715
                        ],
                        [
                            0.05598745122551918,
                            0.09227065742015839,
                            0.013484726659953594
                        ],
                        [
                            0.19634799659252167,
                            -0.037939753383398056,
                            -0.09449367970228195
                        ],
                        [
                            -0.2726520299911499,
                            -0.3474980294704437,
                            -0.3009437024593353
                        ],
                        [
                            -0.04806247353553772,
                            0.13629156351089478,
                            -0.018615497276186943
                        ],
                        [
                            0.1619008183479309,
                            0.03706749901175499,
                            0.03302548825740814
                        ],
                        [
                            -0.38194164633750916,
                            -0.497347891330719,
                            0.15054775774478912
                        ],
                        [
                            0.08659255504608154,
                            -0.012044352479279041,
                            0.21414367854595184
                        ]
                    ],
                    [
                        [
                            -1.2622756958007812,
                            -0.7099189758300781,
                            0.13387365639209747
                        ],
                        [
                            1.1206028461456299,
                            1.205369234085083,
                            0.2570900022983551
                        ],
                        [
                            -0.10296879708766937,
                            -1.2392202615737915,
                            -0.5229576826095581
                        ],
                        [
                            2.0781667232513428,
                            0.752027153968811,
                            0.6028558015823364
                        ],
                        [
                            1.6470924615859985,
                            1.0569318532943726,
                            0.622316837310791
                        ],
                        [
                            -0.8648437261581421,
                            -0.3348853886127472,
                            0.8366959095001221
                        ],
                        [
                            -1.4008498191833496,
                            -0.9372479915618896,
                            -0.2711261510848999
                        ],
                        [
                            -0.26066282391548157,
                            0.3480423390865326,
                            0.4037540555000305
                        ],
                        [
                            1.7152444124221802,
                            0.745703935623169,
                            0.45193377137184143
                        ],
                        [
                            -1.7339674234390259,
                            -0.6914322972297668,
                            -0.46381402015686035
                        ],
                        [
                            -0.14927825331687927,
                            0.4209541380405426,
                            0.9443559050559998
                        ],
                        [
                            1.6422311067581177,
                            0.8666821718215942,
                            1.1836856603622437
                        ]
                    ],
                    [
                        [
                            -1.5824223756790161,
                            -1.468363881111145,
                            -1.1080378293991089
                        ],
                        [
                            1.5791332721710205,
                            1.2529809474945068,
                            0.5857545733451843
                        ],
                        [
                            0.17236201465129852,
                            -0.6264379620552063,
                            0.8562330603599548
                        ],
                        [
                            0.6193010807037354,
                            0.777482271194458,
                            0.3756105899810791
                        ],
                        [
                            1.1819909811019897,
                            0.5664606094360352,
                            0.7027366161346436
                        ],
                        [
                            -2.567908763885498,
                            -2.164018154144287,
                            -1.5459158420562744
                        ],
                        [
                            -1.3469431400299072,
                            -1.1035661697387695,
                            -1.252369999885559
                        ],
                        [
                            -0.17099657654762268,
                            -0.5765934586524963,
                            -1.0289697647094727
                        ],
                        [
                            0.9220103621482849,
                            0.4892127811908722,
                            1.003974437713623
                        ],
                        [
                            -1.1346911191940308,
                            -0.7415534853935242,
                            -1.0316426753997803
                        ],
                        [
                            0.2807711064815521,
                            0.33426401019096375,
                            -0.27395930886268616
                        ],
                        [
                            0.7837055325508118,
                            0.4875003695487976,
                            0.9386569261550903
                        ]
                    ],
                    [
                        [
                            -0.4973870813846588,
                            -0.0505155548453331,
                            -0.7835761308670044
                        ],
                        [
                            0.044803619384765625,
                            0.4296385943889618,
                            0.5348419547080994
                        ],
                        [
                            -0.484664648771286,
                            -0.8395322561264038,
                            -0.6771604418754578
                        ],
                        [
                            1.0196950435638428,
                            0.4917217791080475,
                            0.3459508717060089
                        ],
                        [
                            0.7821722030639648,
                            0.0592152439057827,
                            -0.07284455746412277
                        ],
                        [
                            -0.7687944769859314,
                            -0.3787023425102234,
                            -0.45746609568595886
                        ],
                        [
                            -0.6176006197929382,
                            -0.47017213702201843,
                            -0.9587001204490662
                        ],
                        [
                            -1.5895485877990723,
                            -0.3093976378440857,
                            0.8384506106376648
                        ],
                        [
                            1.1137197017669678,
                            0.2858200669288635,
                            0.21255671977996826
                        ],
                        [
                            -0.49938517808914185,
                            -0.4448709785938263,
                            -1.0711586475372314
                        ],
                        [
                            -1.227906346321106,
                            0.3153577148914337,
                            1.6959619522094727
                        ],
                        [
                            1.4757651090621948,
                            0.5880364775657654,
                            0.34341371059417725
                        ]
                    ],
                    [
                        [
                            -0.5426024198532104,
                            -0.32378166913986206,
                            -0.947925865650177
                        ],
                        [
                            0.08565164357423782,
                            0.23953087627887726,
                            0.37375566363334656
                        ],
                        [
                            -0.31592071056365967,
                            0.08932748436927795,
                            -0.42129847407341003
                        ],
                        [
                            1.0148965120315552,
                            0.5180639028549194,
                            0.9153459668159485
                        ],
                        [
                            0.49783235788345337,
                            0.41843298077583313,
                            0.7079542279243469
                        ],
                        [
                            -1.0422866344451904,
                            -0.2882884442806244,
                            -0.8222892880439758
                        ],
                        [
                            -0.8800695538520813,
                            -0.619024395942688,
                            -0.8561318516731262
                        ],
                        [
                            0.03539211302995682,
                            -0.1373824179172516,
                            -0.04393348470330238
                        ],
                        [
                            0.6880431771278381,
                            0.7988052368164062,
                            0.7702084183692932
                        ],
                        [
                            -0.48237237334251404,
                            -0.46365654468536377,
                            -0.8339568972587585
                        ],
                        [
                            0.40011656284332275,
                            -0.2516676187515259,
                            0.12264418601989746
                        ],
                        [
                            0.9044848084449768,
                            0.7664265036582947,
                            1.027839183807373
                        ]
                    ],
                    [
                        [
                            -0.3766821026802063,
                            -0.031737927347421646,
                            -0.6225889921188354
                        ],
                        [
                            0.6733938455581665,
                            -0.15356847643852234,
                            -0.0353192575275898
                        ],
                        [
                            -0.3563011884689331,
                            0.2152547687292099,
                            -0.19624300301074982
                        ],
                        [
                            0.16250985860824585,
                            -0.016955453902482986,
                            0.1764194667339325
                        ],
                        [
                            0.32073017954826355,
                            -0.19586052000522614,
